{
  "metadata": {
    "version": "1.2.3",
    "created": "2026-04-06T03:13:03.670348200+00:00",
    "episode": 100,
    "metrics": null
  },
  "config": {
    "actor": {
      "input_size": 9,
      "hidden_layers": [
        {
          "size": 18,
          "activation": "Tanh"
        }
      ],
      "output_size": 9,
      "output_activation": "Tanh",
      "alpha": 0.1,
      "tol": 0.01,
      "min_steps": 1,
      "max_steps": 20,
      "lr_weights": 0.01,
      "synchronous": true,
      "temperature": 1.0,
      "local_lambda": 1.0,
      "residual": false,
      "rezero_init": 0.001
    },
    "critic": {
      "input_size": 27,
      "hidden_layers": [
        {
          "size": 36,
          "activation": "Tanh"
        }
      ],
      "output_activation": "Linear",
      "lr": 0.005
    },
    "gamma": 0.95,
    "surprise_low": 0.02,
    "surprise_high": 0.15,
    "adaptive_surprise": false,
    "surprise_buffer_size": 100,
    "entropy_coeff": 0.01
  },
  "actor_weights": {
    "layers": [
      {
        "weights": {
          "data": [
            0.02503856532880805,
            0.04028171420017557,
            0.12866052933325678,
            -0.08871667313699871,
            -0.4390258015096923,
            -0.08017945434109663,
            0.2238458971510051,
            0.32927757046195205,
            -0.34763359711512454,
            -0.46833841494536504,
            0.4074303378913047,
            0.005797674514500806,
            -0.10309685233554267,
            -0.3385815884899356,
            0.021721502472136445,
            -0.2652069132446453,
            -0.45953172620588006,
            0.01814787829000669,
            -0.42400603568178913,
            0.13807486205926323,
            0.3260144045136081,
            -0.0021432139016681617,
            0.005635770333067891,
            -0.41625513081097315,
            -0.14046834366387667,
            -0.04944139339671977,
            0.2775487257136017,
            -0.27950990863681824,
            -0.09266553330808486,
            0.14575886222154943,
            -0.07166601193890348,
            0.3662669593916139,
            0.397835324897169,
            0.34818250033975473,
            0.140376299279645,
            -0.2632584934160602,
            0.07262808382959474,
            -0.10360825198566448,
            -0.4084883701128005,
            -0.06763524051784064,
            0.45882221203719864,
            0.1012545656583641,
            -0.04466766493591673,
            -0.44478598269763925,
            -0.3260258100354514,
            -0.1088278318776405,
            -0.008096250230141211,
            0.4418845126581943,
            0.33120503306068394,
            0.04316573978093574,
            0.2534766725614155,
            0.293080168145476,
            0.0706347470145986,
            -0.2499685111808587,
            -0.11013241212137104,
            -0.10015680384251974,
            -0.2554707214405235,
            -0.23973602617778061,
            0.1267686242590933,
            -0.020750286497062564,
            0.4403142697191531,
            -0.3124378047921875,
            -0.03282217004545274,
            0.03230734604794627,
            -0.36690308335168953,
            -0.16151083795851956,
            -0.24075943906864747,
            0.06444473119631422,
            0.17289098346941278,
            -0.41545564200239127,
            -0.020750411528836554,
            0.10675904991568042,
            0.3489727013642655,
            0.06396479909675001,
            -0.013369766165883479,
            -0.04945231811690254,
            0.4053415754848009,
            -0.4330549475195138,
            -0.011735079341774146,
            0.2420324250496656,
            -0.16952972984339876,
            -0.14845064804939656,
            -0.11033639072895524,
            0.20987337859918342,
            0.17400511917204364,
            0.07185565722546061,
            -0.39642671102730603,
            -0.10199863183400448,
            0.20114726020498952,
            0.40817324527411547,
            -0.38861639980137963,
            0.325697689580987,
            0.06869253796672925,
            0.26650107755380104,
            0.24879439298205375,
            -0.16731205407732458,
            -0.31415258257251716,
            0.2757506217634761,
            0.35383691944446927,
            -0.17204382420301834,
            -0.33587737556066094,
            -0.19951319096301512,
            0.39994916056322416,
            0.2270167144468982,
            -0.2193963410850246,
            -0.34533853283827504,
            0.32380624008033554,
            -0.3269475588010713,
            -0.08607402870289488,
            -0.09655720390697031,
            0.08372321955233997,
            0.3609273014487918,
            -0.33772146208271375,
            0.05130206038800622,
            -0.025035559850749234,
            0.25912108054695904,
            0.038514238579859916,
            0.37037560782076884,
            -0.3610076139253327,
            0.32165136747547896,
            -0.30844827759196836,
            0.43320791013649385,
            0.46123221336692155,
            -0.3469716224773016,
            0.446204434487107,
            0.3669931797506838,
            -0.28165655283146385,
            -0.019541815443387345,
            -0.3832827490021836,
            0.15509864974201681,
            0.2590702814136733,
            -0.35023654568769136,
            -0.1000767505566389,
            -0.02652938536087912,
            0.3123808785514409,
            -0.2817723054103868,
            -0.4157964896471587,
            -0.3976411427022078,
            0.00805260298873195,
            -0.3447441885423071,
            -0.22123591793616298,
            0.17848956076874256,
            -0.17422634742393706,
            -0.3667719035845662,
            -0.311345688371224,
            0.2163559308210219,
            -0.03717219765687507,
            -0.22637012532421977,
            0.04988856279447007,
            0.07727718622822743,
            -0.08297003918276025,
            0.3581189008181125,
            -0.008227196961704042,
            -0.45474141101039467,
            0.10950067973176769,
            -0.4641307399463796,
            0.1554121231487936,
            -0.34695550272165,
            0.016603711571336444,
            -0.46240519776789735,
            -0.2671277539233171,
            0.17418077020536915
          ],
          "rows": 18,
          "cols": 9
        },
        "bias": [
          0.0,
          0.0,
          0.0,
          0.0,
          0.0,
          0.0,
          0.0,
          0.0,
          0.0,
          0.0,
          0.0,
          0.0,
          0.0,
          0.0,
          0.0,
          0.0,
          0.0,
          0.0
        ],
        "activation": "Tanh"
      },
      {
        "weights": {
          "data": [
            0.38745149209746077,
            -0.04599625842482197,
            -0.05265969825689948,
            -0.38205601217421115,
            0.17002668261317122,
            -0.20715920974066548,
            -0.4050706945231419,
            0.41323951896410316,
            -0.1692124071686913,
            -0.29078601562973294,
            -0.47110882642732416,
            -0.0000969191412679149,
            -0.24968978041715553,
            0.34075978877845836,
            0.33440796963321906,
            -0.058180454625164246,
            -0.10210949063273611,
            0.4431717014978306,
            0.12447489351850993,
            0.0001563457538947821,
            -0.3995090555299869,
            -0.0047760397689153855,
            0.1927263330096214,
            0.4498794210532112,
            0.026762472624684064,
            0.2133362040206236,
            -0.2851364949340934,
            -0.3838191296356996,
            -0.46955601862245955,
            0.211795216560264,
            0.10009978919178131,
            -0.19247980111139984,
            0.2230549271996387,
            -0.21850370685812004,
            0.2112887368228552,
            0.45486959823906326,
            0.26036785184270395,
            0.428438130128034,
            0.30426182053842166,
            0.20882899771114827,
            -0.41713584382021807,
            -0.3532809341861909,
            0.18254237548970875,
            0.3579795953931757,
            -0.27397499116894203,
            -0.15545413684326553,
            -0.020745279309080267,
            0.28486828406106846,
            0.24904445363261096,
            -0.22093709948846002,
            -0.09041740373901086,
            -0.3984359368624129,
            0.06632574603702246,
            0.25057566618166816,
            0.14778098319266086,
            -0.21283766209827853,
            0.3519490423688506,
            0.3632292224748551,
            0.2338712993914528,
            -0.18492910515212163,
            -0.3753082875038151,
            -0.3402959030679744,
            0.16792155193282188,
            0.18775704341694066,
            0.20378175845860125,
            0.311028978140523,
            0.3493347376895549,
            -0.2013575512129674,
            -0.4171409438410035,
            -0.0806628768610535,
            0.08003744934332735,
            0.33116192269423395,
            -0.2140234087006409,
            -0.11224712929446318,
            -0.18391438559564594,
            0.06019208004402754,
            -0.10025456142646866,
            -0.4522058721933438,
            0.032178250753669424,
            -0.4415944228637167,
            0.029636315515351286,
            0.0559666203996817,
            -0.13910378843494703,
            0.3580087357455287,
            0.12646065523981254,
            0.17152307791545207,
            -0.02480502653256994,
            0.13578334804379955,
            0.3621977031372352,
            -0.09830292492457693,
            0.0461050192732575,
            0.19316862860489037,
            0.4433889422299345,
            -0.3006296134371723,
            -0.25465006815728053,
            -0.363875820776928,
            -0.24648626407773216,
            0.10525416493050321,
            0.198229269243421,
            0.27976637495435475,
            -0.35864986272490057,
            -0.34703289610920773,
            -0.0064005832732552115,
            0.16147704949059083,
            -0.166553330099456,
            0.1967008019826968,
            -0.36479526051236666,
            0.1943915225826639,
            -0.036976643322838676,
            -0.11642833544285741,
            0.3339374555159055,
            0.41763969378479393,
            -0.21045489944101542,
            0.46270721073140064,
            -0.254542425739246,
            -0.4209398924320196,
            0.2466085454444833,
            0.35260177270499116,
            -0.4266487479422729,
            -0.35121709084259095,
            -0.03472505081862931,
            0.08906688897423976,
            0.09795717561107631,
            -0.412878908210415,
            0.03293658395813548,
            0.24423700790501546,
            0.19271456486066407,
            0.1860756299921179,
            0.33886260106338284,
            -0.1096468343188402,
            0.19947548158064432,
            -0.42962502004760567,
            -0.2530586788006015,
            -0.11017438165338134,
            -0.37846923377249736,
            0.3363094657293547,
            0.36625563422473606,
            -0.4287055524608861,
            0.05622795147544091,
            0.291186858597419,
            -0.0548149356389267,
            0.2907815446067328,
            -0.3437686731151013,
            0.06054140345366166,
            0.3218068876245841,
            0.22504285796971546,
            0.13063258027034297,
            -0.18482608029288428,
            -0.03437018266487313,
            0.2046261219904344,
            0.22281077107359937,
            0.0019628565623505123,
            0.15369372262583125,
            -0.22061291968113977,
            0.3959307439438754,
            0.030568197279572495,
            -0.06809089939756036,
            -0.3945135389411488,
            0.3385568929480033,
            0.14279349924158913,
            -0.4222723787941129,
            0.05714444374098682
          ],
          "rows": 9,
          "cols": 18
        },
        "bias": [
          0.0,
          0.0,
          0.0,
          0.0,
          0.0,
          0.0,
          0.0,
          0.0,
          0.0
        ],
        "activation": "Tanh"
      }
    ],
    "rezero_alpha": [],
    "skip_projections": []
  },
  "critic_weights": {
    "layers": [
      {
        "weights": {
          "data": [
            -0.18765332348805863,
            -0.0661739355547381,
            -0.15781990561983272,
            -0.2896728080284051,
            -0.12937147129192625,
            -0.024605681045524297,
            -0.20938340764417662,
            0.15659075328592925,
            0.019522822515591176,
            0.003650981736149639,
            0.04326489447153037,
            0.28690804346172166,
            0.12588219420535546,
            0.1987227175396737,
            0.16928773975168865,
            0.22459030868273328,
            0.18627199479799328,
            -0.14266369373958881,
            -0.15575008742205723,
            0.28190628954016755,
            -0.012877878834389456,
            -0.26416977938551833,
            -0.05360166634584562,
            0.10611471883094087,
            -0.30416735586499194,
            -0.1436191882123025,
            -0.12018799294842625,
            -0.17804839661591476,
            -0.1455841275845519,
            0.194269078466695,
            -0.06268257104995556,
            -0.15752887414249028,
            0.038830852425091544,
            -0.016888571391318996,
            -0.2055767018164129,
            -0.3055131751179299,
            -0.20710744126089337,
            0.22306719446334405,
            -0.06875366606129416,
            0.2783531151940997,
            -0.21187081329736365,
            -0.13942766169507761,
            0.135553988473482,
            -0.25734244711676235,
            0.28490275704259976,
            -0.15781148395697867,
            -0.00105127357562379,
            -0.09242815118706499,
            -0.1811798325491239,
            0.17468109446524094,
            -0.2876990605522379,
            -0.12032862767014535,
            -0.14868172197538482,
            0.144768094449732,
            -0.17644225328950885,
            0.2261498931978128,
            -0.0234088013225367,
            0.21608569158149898,
            0.1379694857394918,
            -0.09371830877898168,
            0.006798588003687656,
            -0.22605480182650833,
            -0.05197999899989142,
            -0.2229075916643805,
            -0.2971931070330981,
            0.011526329962519455,
            0.21089177357700767,
            0.2386557752091441,
            0.026442270726482697,
            0.21521289124317028,
            -0.06023252592101305,
            -0.19028443324660044,
            0.25699474250015614,
            -0.16860785193531153,
            0.11421949954095068,
            -0.017416243189702085,
            0.2718322872997742,
            -0.15508277245975566,
            0.06927455572600433,
            -0.1658444890759152,
            -0.17006731255536991,
            -0.005697654629316873,
            -0.2277990455320184,
            0.13457474196145225,
            0.07033513676099279,
            0.2995229648823124,
            -0.1950898577460024,
            0.10960265416273074,
            0.035517773603436664,
            0.0535637404058103,
            -0.12009880876210502,
            0.295107995266738,
            -0.06589080043718212,
            0.06312196112692181,
            -0.0367895436285669,
            0.01172919293095126,
            -0.22920470312064617,
            -0.06974911163215619,
            0.23664191817331653,
            0.15540816832540266,
            0.1058710466883181,
            0.23016891712235638,
            -0.2733579519913455,
            -0.08946052352590081,
            -0.27950946172603686,
            0.30273702205096625,
            0.03224482421801861,
            -0.06527885682026424,
            -0.3038068349394577,
            0.17896304037964794,
            0.01755653185385908,
            -0.160048382100702,
            0.022198633523297706,
            -0.1574155191135758,
            0.06449334755713432,
            0.08746023759367794,
            -0.10108965124255725,
            0.12427282637176829,
            0.1871801213126088,
            0.03027105474462577,
            -0.0449841807473339,
            -0.1279270894280927,
            -0.19519604766623325,
            -0.0335973880655519,
            -0.17777297346171222,
            -0.13836537586569184,
            -0.22907845653344963,
            0.08258398042114778,
            -0.26886562787157964,
            -0.13544779308313892,
            0.25290654209099356,
            -0.2073964289831864,
            0.30029004231415785,
            0.16042821244803424,
            -0.24969696353683335,
            -0.1781989110557504,
            0.03286023079293149,
            -0.032878661484439464,
            -0.22022036998138197,
            -0.2589670990296967,
            0.2677102705832846,
            0.030679411937598433,
            -0.24680322833033355,
            -0.20551481168984637,
            0.04367532964847998,
            -0.04962328885682188,
            -0.05758796604178884,
            0.26520949374562713,
            -0.23334212263912013,
            -0.11382474128218878,
            -0.05858407198378779,
            0.27897098918271573,
            0.14000015906765512,
            -0.2538922265557753,
            -0.24712406454344005,
            0.1174159119043674,
            -0.174941260484223,
            0.2240936950970694,
            -0.06276949908853277,
            0.25427586851287415,
            0.2993482283447217,
            0.18381721153191372,
            -0.27592626279435023,
            -0.12498028722311186,
            0.177692996976334,
            -0.10263746450837993,
            0.01373564283812323,
            0.05765035005419855,
            0.18554898143244197,
            0.187939297980581,
            -0.008205774694489243,
            -0.004030547217489411,
            -0.06883626141887678,
            -0.02770818709809869,
            -0.1948191093343597,
            -0.031043363034159777,
            0.21603237192185448,
            -0.2524071003065968,
            -0.3004159560295166,
            -0.07473087930336736,
            0.006891035476743246,
            -0.03602349157593154,
            0.2518088398053763,
            -0.0023884113532984252,
            -0.2536075696175024,
            0.12023391254281313,
            0.20221872026124382,
            0.17640198597614082,
            -0.05331594224772407,
            0.18855927167505665,
            -0.1110452048739271,
            -0.25835328789903056,
            0.13247597398907962,
            0.20995302334494276,
            -0.0985620682269766,
            -0.07600660303741733,
            0.16008280431889854,
            -0.0406287226015265,
            0.1603681508095191,
            -0.27835015997726636,
            0.17712086258270893,
            0.020355103057335455,
            0.044894110002445975,
            -0.2912956398125747,
            0.026052082411889665,
            -0.1023849553432942,
            0.27080244404313863,
            -0.03232517505557464,
            0.30145069837406396,
            0.09437742852833791,
            0.17187463763040955,
            0.07919695199756088,
            0.030582086661309016,
            0.11900757398492073,
            0.18245343431236677,
            0.016274537784113863,
            -0.26725706129314913,
            -0.1285770333204823,
            -0.08214338578992106,
            0.01006767891941529,
            -0.08287252305978304,
            -0.12241116911216252,
            0.022391700652194424,
            -0.29612909907537743,
            -0.2005196942713705,
            0.10710329743836289,
            0.2050155957521383,
            -0.13971255266224542,
            0.04691705569875887,
            0.05984823092298186,
            0.0663419993387066,
            -0.19865486581729203,
            0.0686290176645305,
            -0.23639897276861105,
            -0.034345437747259566,
            0.21789127136612002,
            0.019100019913925126,
            -0.019653741530752833,
            0.0241046982861996,
            0.1792426488907069,
            0.1373312169857827,
            0.021504357924158057,
            0.17225558420164483,
            -0.07026003958665406,
            -0.15123451872442786,
            0.1332582956138072,
            0.2921275708501991,
            -0.05189247369750344,
            0.015988425813317053,
            0.25043640981801213,
            0.050202656916704336,
            0.02372612437866678,
            0.2646572580361983,
            -0.22886487314018283,
            -0.26281780481376354,
            -0.15696087447732088,
            -0.049057097848379416,
            -0.284071488625172,
            -0.1404489755019801,
            -0.2652931580060912,
            0.21472891227747776,
            0.2383572379993319,
            0.0009290611868234544,
            0.21299169581337302,
            0.01955574035582608,
            -0.287342086070869,
            -0.24219086789200994,
            0.2893337377665692,
            0.23581348236901029,
            -0.10381277136905831,
            -0.03947339534677835,
            -0.23448636751548316,
            0.06977174954230547,
            0.14172031913726507,
            0.10382209031797368,
            0.06323721592867398,
            0.16399938766598277,
            0.30289570311465025,
            0.2109592516575815,
            0.18327271095831404,
            -0.16066664460300728,
            0.11201963616353788,
            -0.2319726939892447,
            -0.09359908181878243,
            -0.16810676466912886,
            0.2501768552722226,
            0.24593514614531692,
            0.18457369035129118,
            0.12970920794001056,
            0.3041625947551147,
            -0.02328965297609381,
            -0.09003216577207324,
            0.020608413233861866,
            0.2658608495279166,
            -0.18407597632803652,
            -0.2621773584481076,
            0.0214809500826309,
            0.09279890805457319,
            0.14003146679290301,
            -0.1903934758496617,
            0.10208361191577064,
            0.011946912752911543,
            -0.23398088144697843,
            -0.026813896632784273,
            -0.0916044206866592,
            0.003959465791429528,
            -0.14721389480561703,
            0.17104434902716226,
            -0.10404627396429272,
            -0.20320473979573433,
            0.09718632327102789,
            -0.1458082492822552,
            0.21189637914167597,
            0.19325863548124095,
            -0.06492267192678347,
            0.018017097331541276,
            -0.07260150237162322,
            -0.04281854246905337,
            0.13522498268849242,
            -0.016237496662166062,
            0.21426402522297633,
            -0.29308107278852064,
            -0.16591566861823562,
            -0.05395764824541516,
            0.17982610567581353,
            0.1827855574504726,
            -0.10803515994952104,
            0.15013827030352894,
            0.1653339677493621,
            0.1602446690083396,
            0.05159641151437849,
            -0.15384353843894022,
            0.015609747485663183,
            -0.19086549455056398,
            0.04614725455366647,
            -0.21876683420084198,
            -0.11141093449060685,
            -0.02632855521204097,
            -0.09289209237364449,
            0.05844442799219246,
            0.040431977774824435,
            0.11195538726044968,
            0.2724939895227337,
            0.2089920959337394,
            -0.2702936928702,
            -0.057781029736119205,
            0.2527905614274742,
            -0.10037913620672603,
            0.010875098738937994,
            -0.30791572928205885,
            0.29793851959224943,
            0.2699927229927101,
            0.03647980014866359,
            -0.2905211025892701,
            0.10765822721368457,
            -0.11234120718963919,
            -0.07830993714802906,
            -0.013502575474342027,
            -0.21890410391953874,
            -0.1680721494042946,
            0.18493522127017498,
            -0.3048211652854797,
            -0.208246692578823,
            0.23959961371042898,
            0.2654428243517845,
            0.25964395702806436,
            0.05501481250723961,
            0.11191744170213691,
            -0.2123403499683182,
            0.2950940378552566,
            0.13700840051629626,
            -0.07253352132603344,
            -0.11333979891492757,
            0.1679348132166928,
            -0.22522960128318464,
            0.007700814724920013,
            0.09296440592633726,
            0.08440320062466244,
            -0.0050051037425815625,
            0.22022603784424927,
            0.27125920874140536,
            -0.18956855750143953,
            0.21366141270667688,
            -0.23691239708201983,
            0.19792621125448723,
            0.012325939083003445,
            0.012051641657163936,
            -0.08274527738707652,
            0.0963709535344836,
            -0.24557414159843427,
            0.27095322807637773,
            0.10922846365310085,
            0.05030836176261,
            0.16990434878152783,
            0.12796021967011317,
            -0.19047051201654802,
            -0.1824423956006212,
            -0.034438155357374434,
            -0.13354116487735135,
            0.2226280759999278,
            -0.006631706506272539,
            -0.1330111627281657,
            0.2876046578246139,
            0.29093107761663634,
            0.21138647240322056,
            -0.21553658823965666,
            0.25289870039281265,
            -0.10902900153966752,
            0.30065935781721204,
            0.20766705706467864,
            0.18879404028916907,
            0.14762088530526712,
            -0.24177659336647256,
            0.004981723266809346,
            -0.037609807951512086,
            -0.09387389915582589,
            -0.19155825080079641,
            -0.13353139378965626,
            -0.1459614892248804,
            0.04354757363537326,
            -0.09646411916650585,
            -0.28367305993432307,
            0.286532376588615,
            0.2840014315984833,
            0.1908222680109058,
            -0.09737061811040221,
            0.21790267151309411,
            0.1521233440824688,
            -0.03872078073544616,
            0.11028568554657808,
            0.028799140026967207,
            0.006162965077662896,
            -0.12973650518908322,
            0.07413242456809244,
            -0.14617272111935284,
            0.21209288946126797,
            -0.0658986882145573,
            0.22281742020780487,
            -0.2177545802181834,
            0.21606194780048055,
            -0.2652368903933686,
            -0.24868361875595396,
            0.2948967385452759,
            0.15205317193125267,
            0.1345481823888076,
            0.09988457149685193,
            0.2056239457149988,
            -0.15931007472027028,
            -0.08754399973736629,
            0.08826835976805675,
            0.12272368350789065,
            0.15888696783797335,
            -0.13883374540730822,
            0.1795012574519559,
            0.27076463798411937,
            -0.2349738869758249,
            -0.23276202101381974,
            -0.2205806914793171,
            -0.10965970337319858,
            -0.01407596000646133,
            -0.2713206363229686,
            0.19450189979665938,
            -0.0024286167330132558,
            -0.2659194638305918,
            0.16695274732876247,
            -0.08507580483536942,
            0.18876015261318962,
            0.048401798781084804,
            -0.10835378141747287,
            -0.14373326482178353,
            -0.03194919426988296,
            -0.10541280997002173,
            -0.025626207986563065,
            0.30303690486512364,
            -0.2008736427692116,
            -0.177131402843094,
            0.08140783694117082,
            -0.07178194842829547,
            0.29038942843263776,
            -0.018923930822531243,
            -0.009559548852269062,
            -0.11871058223749503,
            0.014856531150312546,
            -0.03175412191776911,
            0.062198451038903424,
            -0.2543421444465455,
            0.024230455291661013,
            0.0841045766790926,
            -0.28432160182924116,
            -0.11062733786821846,
            0.30394817219416087,
            0.30537112082960277,
            0.03376055587518262,
            0.11855210814832917,
            0.2966382564833315,
            0.1315616751380187,
            -0.27034205138622575,
            -0.25293862393780797,
            0.1337823638195108,
            0.06127016443339117,
            -0.1943165038733885,
            -0.0253015978933554,
            0.05698487586448542,
            -0.14422304923431883,
            0.141429942842014,
            -0.10220546729017446,
            0.12150970591864296,
            0.094026347845032,
            -0.2658432616809064,
            -0.12913351484231916,
            0.2154386235528048,
            -0.00732008126449446,
            -0.12879937729937813,
            -0.2875753268849297,
            -0.28427440127910336,
            -0.22464045933618365,
            0.13942351458465124,
            -0.17367307189790357,
            -0.16886720524693527,
            0.04670198620387389,
            0.15614448912480433,
            -0.2072947495382092,
            0.1492349808728225,
            0.13322996782410018,
            0.042137840448644936,
            -0.23244272614503486,
            -0.1278308511140397,
            0.08526232659322086,
            0.06019164786749431,
            -0.11637915615135805,
            0.1699585616617879,
            -0.02656304972628032,
            -0.07889333532557036,
            0.3083732710911999,
            -0.007829460834164748,
            0.06002033843117566,
            0.05823361155730289,
            0.13418668233528713,
            -0.25899348241053627,
            0.11026677564592458,
            -0.034682865607041924,
            -0.1305320018542526,
            -0.1727602707658049,
            0.21421801848681338,
            -0.16899591705021486,
            0.2651557027514943,
            0.23719473426453414,
            -0.23114562506538983,
            -0.2516545559455045,
            0.005732813138650039,
            0.0052308881076718605,
            0.27681903272760283,
            0.163538346909874,
            -0.11163508665297589,
            0.2885582782804131,
            -0.23942411438903785,
            -0.2248669323014998,
            -0.05326670490811253,
            -0.2823570765607387,
            -0.003480035765715761,
            0.26521128770665897,
            0.2460531245638194,
            0.06450295578509951,
            0.0017755996426213616,
            0.05651011185083821,
            0.2347093433777701,
            0.18896775791484455,
            0.25144875632740943,
            -0.11081009134179037,
            -0.21206125209196644,
            0.1018889702378098,
            0.09734291013425506,
            -0.28358318241669933,
            0.26956633951438985,
            -0.050108775201513245,
            -0.2368091133376031,
            -0.15722521489042351,
            0.2558990031953115,
            0.2778293660009253,
            0.09639779487529831,
            -0.2776833674565753,
            0.021292734204861885,
            0.17786659062755011,
            0.23443754705821868,
            -0.2020579133874606,
            -0.24934249362794791,
            0.2003285395354663,
            0.2885854006375787,
            0.2665890031995903,
            0.1929929340806799,
            -0.2877612646065378,
            -0.1274396676078361,
            -0.09894855039618075,
            -0.1615033625667407,
            -0.2470269031841954,
            0.06115686976436874,
            0.1346159978876374,
            -0.13299938898757963,
            0.17758881120543635,
            0.2538342074735274,
            -0.009992667229335728,
            0.004566059071348161,
            0.1456090030980971,
            -0.14046398678890967,
            -0.1133894020057,
            -0.09919159355083537,
            0.060088785023485136,
            0.049582558384086706,
            -0.12084037113941698,
            -0.2865781195525964,
            0.24724283411197995,
            0.2635862892491045,
            0.06924414027030901,
            -0.2529442682756725,
            0.296075105978226,
            0.07535768819359939,
            0.25062658897415474,
            -0.2143141006846795,
            -0.07857473596350215,
            0.18599319259161184,
            -0.23077194035346632,
            0.06885271449420327,
            -0.13294849060820843,
            0.19242332282850033,
            -0.2752637132613494,
            -0.06869787803176206,
            0.048904642939994414,
            -0.2596761899947425,
            -0.014009615481529902,
            0.2330075827146451,
            -0.2618678089857042,
            0.2035079418296904,
            0.12822686719571608,
            -0.16529461775158263,
            -0.01962850131224847,
            0.14253294718327386,
            0.18633937634328046,
            0.2648380810450573,
            -0.2984026914808249,
            0.30710200730080567,
            0.16427894085115086,
            -0.12522019393272146,
            -0.06876943082489018,
            0.07803105376900416,
            0.040061262245286444,
            -0.039435525256351134,
            0.024822325794540967,
            -0.18929358725015186,
            -0.049523184067533144,
            0.21244954828432888,
            0.08547149474381693,
            0.12595620767625143,
            0.2778919372007676,
            -0.18567434280627,
            -0.18532098832259675,
            0.2740999982325634,
            0.1035901551329037,
            -0.2779888739964264,
            0.10202114716197802,
            0.026680741035112476,
            -0.10459021215952444,
            -0.007437516899103547,
            0.08325444096132367,
            -0.016912933934785213,
            -0.1262052084510704,
            -0.05927438596579035,
            -0.07330752517464559,
            0.045001238188526804,
            0.2305870066109293,
            -0.25978574895963125,
            0.27642313903148114,
            0.1244266075194832,
            -0.30086177618868715,
            0.07594007409024356,
            0.19103629793728427,
            -0.1965551304505413,
            0.016389171516039247,
            -0.09950681856601176,
            -0.11302182347719006,
            -0.07740139738998628,
            -0.2012508809517774,
            0.03996249853775152,
            -0.1845731152297667,
            -0.18965539239428658,
            -0.08544229878749193,
            -0.27084018563260104,
            -0.28837787570368273,
            0.003813063563356034,
            -0.0993039103982456,
            -0.14769012639511941,
            0.2253208251068824,
            -0.050175031677505255,
            -0.08709615990328384,
            0.25319230770406514,
            -0.18517939033339792,
            0.21112965476060125,
            -0.03476724035275508,
            0.25135213594270817,
            0.2036735605408299,
            -0.13764223577761542,
            0.2750775821542853,
            0.08607718208185494,
            -0.2653754143364165,
            0.2937816325510098,
            0.0746185825006318,
            0.22989195878442364,
            -0.20427186338997533,
            0.16362348308253905,
            -0.07032556134037257,
            0.24291868056197868,
            -0.21989035499358922,
            0.08142678552191901,
            -0.14379487789393938,
            0.0997053919443947,
            -0.16843683133040793,
            -0.2198971673068385,
            -0.02400617789603493,
            0.05840869727970793,
            -0.26401346393675135,
            -0.2187971637782105,
            -0.27566648299731167,
            -0.07588322640803036,
            0.22874001284364992,
            -0.010992043694447395,
            0.0332310585825768,
            -0.26062447711765924,
            -0.1869126190470336,
            -0.13139653108708468,
            0.2952124264175003,
            -0.10423249135599083,
            -0.25927354343395237,
            -0.06082318656645816,
            -0.09857284201947786,
            -0.225007413308978,
            -0.11544659638632257,
            0.1409405164368558,
            0.10827725830686558,
            0.2865708523797052,
            -0.011192859368607255,
            -0.18877001561261794,
            0.2007823375756113,
            0.1439824254001385,
            0.04314607587327912,
            -0.014945736612052007,
            0.18175062227392869,
            0.09823146407642691,
            0.09263972269915471,
            0.11435530238885339,
            0.2297829090224423,
            -0.16732115828857394,
            -0.23798389134741268,
            0.07257217995408449,
            0.19547019635797686,
            0.08036086069979598,
            0.033461848931709004,
            -0.23189142046832215,
            -0.2571373460894806,
            -0.2518840559715471,
            0.010649637738830486,
            0.05542388629861683,
            0.051149192572676305,
            0.02686709766629869,
            0.07089363188755976,
            0.23672927663697957,
            -0.034308176945041735,
            -0.12857916717931137,
            -0.22224370319491193,
            -0.29743887653841844,
            -0.057014922255878675,
            0.21003336170291736,
            0.09365676331598882,
            -0.010833788525372479,
            0.022507934427054455,
            -0.1692511351562075,
            -0.07941038128599479,
            -0.0742581857309183,
            -0.20959572750119493,
            0.21038078636663476,
            -0.013596811859521885,
            -0.2090216776175227,
            0.0021487942809272353,
            -0.10568987483418418,
            0.24174298816882517,
            0.06664308644972394,
            -0.046254710289650613,
            -0.09029907760313047,
            -0.005842748859916591,
            0.04853428362942669,
            0.031108379795880048,
            -0.18297534858035372,
            -0.1482654723803759,
            0.11925405476999401,
            -0.24685423054711492,
            0.03993523232633844,
            -0.24003929382038425,
            0.07756170969010723,
            0.2593406379392304,
            -0.0974343849065612,
            -0.15654856943563705,
            -0.20078398089626714,
            0.05048805983086169,
            -0.17680431396394333,
            0.22576470338872684,
            0.014008829733045625,
            0.04887367585316371,
            0.12192653072611687,
            -0.1316487571075381,
            -0.09515419650971979,
            0.026190565219878725,
            0.21536987201579033,
            0.24240228516311685,
            0.051144676387338106,
            -0.2957804767005334,
            -0.09433114806825851,
            0.263113417087209,
            -0.2210095710985046,
            -0.04115991799367563,
            -0.1967768075613787,
            0.016246031858373866,
            0.1942296547650179,
            -0.18227323783126204,
            0.2391042561885704,
            0.0024455186925691486,
            -0.0875217937014843,
            -0.23198205138321468,
            0.1892656985125578,
            0.2915581111354853,
            0.19828014715537606,
            0.18259159770468736,
            -0.2557376003425838,
            0.1189680610304848,
            0.0032511595052557296,
            0.08451300882840768,
            0.18120939047490886,
            -0.11999202988344937,
            0.2926193018948627,
            -0.22457243340517,
            0.04996887204261535,
            -0.11426097034541449,
            -0.13725709213223666,
            -0.2002174006916402,
            -0.13038047239695744,
            0.2787439727164113,
            -0.004704001450285267,
            0.30284996566906414,
            0.025340664106368926,
            0.0694003312803278,
            -0.1718278776269996,
            0.008638081099527462,
            -0.08259808241054115,
            -0.26725091048449723,
            -0.18218106399002,
            -0.16610301322465634,
            -0.09735291659931117,
            -0.29094027662896776,
            -0.23117567568358144,
            0.22328830247609238,
            -0.23998243163185823,
            0.21705226846560394,
            -0.07562125301872635,
            -0.0868560825695936,
            0.05376438586781851,
            0.3017489238623701,
            -0.14174421567449152,
            0.21738136963013838,
            0.2782757290233832,
            0.008423676660371526,
            -0.19816864366417414,
            0.3045294127652625,
            -0.28722278931983625,
            0.0010087414463274547,
            -0.2530281634498306,
            -0.03273800650777048,
            -0.2879956736750973,
            -0.1988724973374718,
            0.04597382837885289,
            0.13482105948183887,
            -0.09851442843849331,
            -0.2574084796909654,
            0.2972537638903124,
            0.1662928984678656,
            -0.0076297410996191695,
            0.030144736638978098,
            0.11157632601471479,
            -0.235224418838255,
            -0.22580645849087932,
            0.24058702999576126,
            -0.29599951377573774,
            -0.18055310529769514,
            -0.28416562818303565,
            -0.1187611512574975,
            0.24272420827967162,
            0.11343430049498898,
            0.11021502615050682,
            -0.16552783308824168,
            0.1560858122954012,
            -0.09255018352837208,
            -0.12169313865993914,
            -0.2980702777376299,
            -0.1964584103136081,
            0.1330451029726229,
            -0.08491416893230805,
            -0.22828337788261055,
            0.22982888015156483,
            -0.19360706301427877,
            0.2850639908768719,
            0.10418110580199946,
            0.21093575218551114,
            0.030789373540475007,
            -0.11114472705997822,
            -0.13757254302736083,
            0.04161657617823061,
            0.2696645896245952,
            0.005165251169826357,
            0.023089167130906696,
            -0.12607983394323477,
            -0.21795521883296406,
            0.30677367468074984,
            0.022343902474587674,
            0.14703423893474787,
            -0.1370731635633032,
            0.07403246196876534,
            -0.0287662037392869,
            0.19179649546849004,
            0.04510886509933909,
            0.12051128708572362,
            0.06698894792121385,
            -0.30602065151611885,
            -0.2982515160127819,
            -0.13597153646987734,
            -0.0786700368073211,
            0.22880951159183477,
            -0.0422352737356137,
            -0.14817088737796974,
            -0.005258930325052424,
            0.24656005892245209,
            0.05108222327363626,
            0.13037048768327864,
            0.14889901804596223,
            -0.2524249036480674,
            0.06355189027293318,
            0.29019704298412147,
            0.28085081434714904,
            0.18633365814703662,
            -0.13716228911237363,
            0.020725826409332293,
            -0.19924194636534137,
            -0.30487779948968463,
            0.23871775010826463,
            0.180519421474502,
            -0.24334452685524843,
            0.15646358504629426,
            0.07666650856204921,
            0.035569439905550004,
            -0.17778827668896321,
            -0.15015564127129166,
            0.20069815906271654,
            -0.19347137834259837,
            -0.23127682823944773,
            0.2875088980746631,
            -0.2588880757663171,
            -0.010228543366487264,
            -0.03170473602922608,
            -0.12287742959928746,
            0.163508393087274,
            0.22866946186500764,
            -0.2938511038378814,
            0.029519054891435803,
            0.05904308796785013,
            0.1925456595003589,
            -0.14473903753910164,
            0.1552908702683466
          ],
          "rows": 36,
          "cols": 27
        },
        "bias": [
          0.0,
          0.0,
          0.0,
          0.0,
          0.0,
          0.0,
          0.0,
          0.0,
          0.0,
          0.0,
          0.0,
          0.0,
          0.0,
          0.0,
          0.0,
          0.0,
          0.0,
          0.0,
          0.0,
          0.0,
          0.0,
          0.0,
          0.0,
          0.0,
          0.0,
          0.0,
          0.0,
          0.0,
          0.0,
          0.0,
          0.0,
          0.0,
          0.0,
          0.0,
          0.0,
          0.0
        ],
        "activation": "Tanh"
      },
      {
        "weights": {
          "data": [
            -0.30615983470434105,
            0.3085481363380746,
            -0.3141555665760873,
            -0.1098856466847743,
            0.029563688750714245,
            0.30085339313123244,
            0.04377719848363443,
            0.3508831950288657,
            -0.023184116555888257,
            0.1512252448510673,
            0.049561607143765174,
            0.005864220807120346,
            0.3058178545121017,
            -0.21300618858512668,
            0.369768974752049,
            -0.026659184074315556,
            -0.3141347325334462,
            0.056840801387174344,
            -0.34896910213356913,
            -0.2925995805165857,
            -0.35317140078343745,
            -0.31735916518094665,
            0.3971830895658783,
            -0.004260283242369045,
            0.26092101243798554,
            0.37031227678423345,
            0.20744320409598332,
            0.16786794476579708,
            -0.26191610293642575,
            -0.015883993847976396,
            0.1784345858991067,
            0.0182360839256126,
            0.38748381348314603,
            0.14991649554526337,
            -0.3866777886409146,
            0.07832177579532085
          ],
          "rows": 1,
          "cols": 36
        },
        "bias": [
          0.0
        ],
        "activation": "Linear"
      }
    ]
  }
}